9.214886946162302
7.919294319509277
122.54806260937079
2.308892741821049
170.17619473472007
108.3672460077636
-6.921477557020054
264.24522192459636
-74.05678426026178
-38.20507773087896
-217.32962609284937
-5.400419362193446
5.982304329986786
-13.064314459122777
-44.153258240574885
219.80385141224957
31.83443005025192
29.73773426851875
130.46557326958532
-8.25138884331939
259.74217072544536
220.00256076806127
-31.674879166743825
-33.97819272672166
34.72863447563657
-226.3203429847274
185.5069281944966
-46.36674567163013
-18.35154094125228
271.67526359780345
222.42865639442482
-43.0348333348588
190.96984208406934
-37.87191029942699
-46.46594486578761
-7.2069118944063035
227.04831930024415
-118.11632055002147
-4.278172465200937
109.60363984935367
-401.3200957531847
-8.537186484951526
224.79467878900593
78.08183462881088
-225.1236391234121
-36.71258492265118
-23.9719679975041
-45.127971360435936
100.3352114063352
19.61064633219668
24.13838144519827
-36.179167626452525
-59.826430595313425
-5.401719529467904
201.83686196394342
-5.715612734110479
24.030039128751568
9.35931856910707
-297.7870184020992
-36.318511689661236
176.64167702351236
15.017234605361363
49.65615861573495
-22.489284465245348
-6.439123136329865
-69.12695090066016
-45.31081433843653
-295.8714584728981
-65.73535781128884
-309.2684769827375
-6.3270824524967955
-419.80033615251756
-33.32856050689011
120.47585156310996
-30.081610063116997
-11.990369003550526
214.13160430415905
-29.075183527069395
-12.812251594989213
-49.09601466879245
-13.502701274639572
-38.69490900483448
-14.525403102142121
137.15718418008882
-8.020536208755786
-13.51963268592571
31.528396310484084
190.09213944158074
-4.22133878180496
201.24501201314666
-45.076712056774646
185.82829160951115
-49.75379015258234
6.3950859026720765
-194.5883212969568
270.35929623621314
-2.1854625403848758
5.865495915939091
4.178186820655895
153.74335835143307
-31.05636771111382
187.4936657506195
152.63973013303146
-180.43529942279054
-65.31516740720701
170.28478690521763
-60.70250475373305
-30.075005230006425
-2.4115302309174482
10.61460474806548
-7.577867472550144
181.82742499799764
-32.65218257757793
241.79415208310957
185.26929770030054
-373.14854296754055
-77.18387863785415
214.02273870352298
-25.254178148560175
231.74540185228196
35.34317528313531
-233.24293814122223
-15.65408365444586
-54.45750149854226
247.1206178161501
-16.814659026142767
-251.89352349059794
6.304908697709674
-418.53248986505355
-276.7383044557844
5.8257964195932805
0.8383520116469736
-20.665106375617153
-15.328059031725536
249.98518973356215
151.98488646445534
-22.17210337850257
-95.0026535820557
169.21306716740347
172.60741218931884
-146.63156198587208
202.08263761793881
-0.6585833395311806
128.52589863629598
-22.193284876721286
1.799988564954142
-31.689589470294308
-123.91278769867368
-263.02409605532137
150.3838083038769
90.02743929027633
14.17279640003224
-129.68910486935138
-16.349246934354326
48.83595024460942
-26.542941372600357
-3.112952353119411
25.067673529758736
3.5628299369388827
-56.9406905112582
-21.727227089186908
-29.96865748706048
254.06181185673887
-4.687529525501464
-272.9865444454691
-298.61307632706576
-57.69288588370722
157.1996328167159
237.52158109269516
-11.66435650582867
-49.602322302654166
92.5310659611371
56.570830574343304
-27.295103938781907
-20.165571038796262
4.592794890823818
1.5519207567154103
-51.181149066803144
-308.67586052038564
-8.664290970750622
-58.00656040257724
-16.611145777611146
246.68321504063806
21.542576876887225
38.84101388746893
-270.9884496635893
-30.862642311331747
255.8279468084957
-342.8730672618032
-177.2463992557161
-3.987839057054411
161.18499591878705
-19.023389039105503
-250.77335239660115
-4.327334007280982
-111.80335084107477
-25.83467239981548
-539.7085689358676
-103.42666019392924
-19.493609362487447
36.025728374736666
-4.2295719956519795
-40.819556868006906
26.09897848345623
-65.82612008591579
219.714380607965
166.18484014265357
19.934912944131415
9.62355943788073
-334.8375433551138
187.4264070398221
-330.2883277041059
22.007048186655375
44.792097652468605
165.19092096558123
194.81986457730977
-47.27621159195481
-27.27531112816561
-27.56697413635594
257.43303388997106
-12.643311401465123
-8.925328704775868
-23.746764542764357
-29.257201733537734
-39.94448347147619
202.1089407227164
-317.6124216582998
27.59248271242133
-301.0548542781906
-44.24945392506311
21.97266369252351
-43.35890631555544
13.902019390986581
11.84802977732219
186.6571891128631
210.76957306938587
-103.52349583246422
9.002730367129663
176.96740558568558
-4.029159112997593
-267.3600270493479
212.69704272156366
191.43532424575446
18.618981037922993
-213.8602932053857
-34.5355579521169
-258.0681242240769
40.002142362107136
227.1906420330203
-37.79056343354203
16.02827926582208
-5.487107819730367
-1.5881905648136634
106.97132757907102
247.0041961296957
205.25621280072664
-19.262234744642548
-25.6035550296766
-9.669783096593651
124.45524407240308
-55.622076203021024
147.81128703635693
-11.044139994661037
-109.01217376036028
-37.216273887153974
2.4681201413385545
222.94820481207626
-4.726344704128418
-11.407517392466914
-246.9040979678152
267.07409949950124
263.91119147806705
-55.61686863525521
40.16084682169529
-0.6459762482805689
-32.74505872378776
242.68872882025028
-35.3289406589183
-49.29901574961342
168.59565407961085
22.78064088861086
-51.91976144844807
-3.3470010153728946
184.6624648161149
-42.610879897508184
-61.485807433283945
-9.097520695415398
-49.498911022205
-75.04091213483224
-16.11927527248369
220.9683821100985
-48.46159445142021
142.91619286513583
150.1948195733877
-34.22735410019659
-18.02682333973401
-458.24129712515156
-11.33400121664533
-41.213451913804946
27.1411814794957
6.3504249759103715
245.15599761362085
-10.368587651677421
-25.546429685314806
1.4056703922961644
-24.5633228589869
-397.5883197135775
-30.10751452242361
241.74604489368963
260.79466753113206
34.52502650983092
-342.11679781964597
-2.320523989282279
239.66972430058598
-44.11456585020972
-23.030714637634286
-233.52758894191044
-93.72009208659256
246.466928528453
-214.0207922330706
-105.67049149697193
187.8681291541688
5.004640081778756
25.44417302012471
-17.031521330866006
-3.621206212208051
-384.6370296453565
-13.005768114853442
78.30055876955139
-225.99966008947337
-319.5109433577536
-15.415827171430909
256.7870913058194
7.123461223180158
265.9701181720686
167.37008368670456
-32.3432259936569
-357.4245284969458
-63.1168112431729
-4.834108650651603
0.9939957513109257
32.728994461875864
-33.76404160489139
3.733703477311593
37.72564910939616
-9.960024326876637
-346.81988432344724
-79.83330712461353
-243.66468952567914
195.9464766460986
-16.23220428478929
-8.680712309245052
-38.934323284997085
216.91847105061157
242.6661400097012
1.2953675304295884
272.506628102153
-24.266481900006426
-34.10143941834445
55.731043456563185
261.20211868457136
-47.00592446372025
-30.76126954448256
-46.32114157764661
-63.68311532582645
-73.12107371958814
-19.96558987464327
173.77945849072333
-28.135116213764285
-22.12954500570429
212.3480007814764
-13.725130685434607
-47.32641250462882
-31.33497648738586
-46.03930947038532
221.8757278821062
-33.48351189495312
-18.11879742181823
8.366349946206313
269.2983717147499
157.40410378678914
120.0588922025841
262.76748140071317
-45.49002988528534
-21.96058569646344
244.57941571450854
-35.089825720973465
-19.26660272507722
-33.79230119040932
2.000413173477943
-34.75166258247126
246.52996984267864
-15.8758778147488
-57.635814446157006
244.5303153196914
-10.128275195748401
-2.812679306241958
-476.0620016264837
174.11919007868948
-18.403119577306377
28.50543377028376
257.17737132490873
240.6715252560669
-265.7649784350567
-33.41578892599953
223.86043009267007
-16.653617506404608
7.245803044338118
-298.08216432850253
-14.963516288788888
181.6989838779768
272.4997912898341
21.012386405951275
-257.7607289469695
-14.581841208385326
-41.01548591546794
-6.071610605245279
-107.1899070595898
-17.498130948259444
49.4043905191106
29.645410630766598
226.35882195155048
-23.510616109084776
-22.587366582904536
64.2337639207694
-0.4499657055574282
-216.35893257641482
-19.188229733190937
-249.97487264934585
18.794476777219217
9.660446790347791
-8.315689129798692
-0.8282821032434535
-13.813143659472402
-10.277352809764656
-4.110852949252191
166.21184736523128
-14.249485819370301
13.805271102734658
230.79244894708694
-10.870384674479409
86.55973580063316
-7.266547462858079
195.73735886358045
-44.8409940621374
-40.03606919777982
207.1796052187246
-22.310265256711176
-47.859358267161014
200.59464567321862
-2.610945699709333
167.63031059690127
-15.757307705835876
-62.629428206508756
-311.3422471556363
-45.676294932713745
-38.85532406231873
-50.81333391620132
244.79711311002953
12.754096678360892
-36.27688098696394
-1.7134815054617718
-19.960611040629196
41.49901571117192
13.71217039128729
0.3547222796495926
159.1372683279558
-171.95972729988873
-167.97054111402
-347.20543099510826
-31.13653466041922
-51.4528797945967
-14.560539608463888
7.9176395960866595
-186.59708243873263
4.7269685214734665
-365.12350721219957
-20.54233066905343
15.588033068973065
-402.8699951667478
-17.821322022571533
-24.364306008064762
220.21271818335617
-18.993246926718157
-27.87100954542359
-7.601889182764197
219.62196278976967
-43.22146674703182
-40.620094841828276
204.63629906444305
29.147838389887063
143.54925341238243
-21.241936931696785
-228.92860010318583
-34.63499627333659
6.725163904019031
-19.346775298927408
-10.533105295268363
197.46532308060836
-34.430424268616505
19.56539799252697
206.29651512675224
-19.424471151976178
-311.6807889804171
-302.5889529591101
-23.882468597429593
-32.09401082242549
239.82209904512086
8.574528512523443
-26.5796011396025
-274.7580380070442
-37.079481721867396
163.1006590742405
192.04706613393725
11.003127307867839
193.6197567558316
-24.1844503458298
-36.783409804966176
12.662853692208332
-199.77975376545115
-27.65521053604421
182.14851084846651
218.20859000347787
180.7196529804304
151.2557757646632
86.52538709552007
-177.0096595389391
225.0277462031898
-30.941016539868095
14.827431360922445
-6.147635874422371
-315.2548510152094
-29.676285239849538
-69.67797316080801
-26.969445428752067
279.3371203954356
200.99311010497743
-27.48672527221683
-24.163888005789207
-46.296730111478766
-18.658277192009454
2.108693293566546
-17.886240154181323
267.2382217741408
-362.8834699541082
-106.2324023728502
202.26411396107798
-200.45637535803831
-33.965241812901255
-11.499898757838316
80.44703903916749
233.44954575617797
-1.0012939364662614
-9.106001086120997
-53.0631939072592
252.08994859065362
-12.990929005376287
41.88816295695912
193.72241400842412
-263.3725648241315
29.44129187096422
-3.7123731736916454
-33.05827866878401
-16.50152271579166
-19.88960304911943
10.96094017507163
168.0128705577303
-26.709272709621423
1.6180199773484512
11.91566751484986
3.754373366180843
207.90000692832007
-281.8244392999755
-6.950826168213439
151.94648146896435
-36.100850424664785
-299.9801424982976
-224.3633553992917
-11.65114170889819
-274.3274181973958
112.42708971923153
-52.4604180926173
229.94862454168498
214.2691435261787
-31.311713871448916
-7.039584198602952
-12.006681997281959
-290.3483214948585
-25.633932899579097
232.30606004620543
22.204254818624918
-91.3943781287283
14.356138473248805
-24.99430493030974
-33.441185630599485
206.7827470095298
-64.21741108709544
258.07331205460014
185.599673846631
-201.61646419810592
-30.04331317545276
-34.6153665542284
-101.78810889778805
-97.31054267836474
245.19032575458058
-16.50076240219529
-20.462986501830354
178.67087944586524
117.87881612149917
118.9131755461126
-28.02106578545413
-5.356457747792803
-217.21572409595285
37.10591018945813
9.161673010207352
-5.967633390108725
-21.726434366905266
-13.848729342709401
70.45115572569713
-17.90608502275984
-15.606750257433053
-36.799625545409064
-261.63595574803094
202.97041732824448
-54.21305023036105
-37.58633320202399
110.69033141299947
-239.56997129607234
-7.104760828484236
13.356670893200537
43.21937941799672
-12.14520874376571
-10.13076101109562
-23.47509607532513
39.898782874876034
-45.81609877115253
-35.112245891257885
-33.550680093371
-44.59195669796489
-283.6862985032352
23.18040484861455
-411.89751489836493
-30.167654669259644
4.54443873416262
-158.7163588835074
219.840887166443
-27.816495420733563
272.8134335028768
17.622065808351028
217.69195233333082
245.55435281134294
-25.832847065179536
-33.966361622620866
-38.49570501255194
256.4608421292564
22.339390504319336
22.846172916707502
-352.64729242247745
-10.7454902779615
-12.57782345763145
-8.660392764454024
-8.77412779106683
-9.802286672938358
-43.64000662697652
-23.474769792531436
-222.2412068886467
132.36993019454673
243.49338003601903
148.77909804596987
-33.16529367772275
-8.100646825557392
105.44764584379963
-53.85592746892356
-51.231952510423255
-13.286526443616046
-44.43890470334455
-2.7399891556454055
142.98383987283356
165.6613517342242
13.789076570272343
12.63380358976295
-74.12252478639454
122.69968627980253
261.4627254939778
-45.48181826807428
37.585338224256816
-283.2937312163126
19.07865081653021
-80.24825620010883
197.05722652477903
-50.20008567310263
134.65164327746083
-16.344137980578935
-43.39785407590332
-62.88298717004348
215.6162994284341
-291.3261867096427
141.30578265382152
-234.75833392190384
-86.76759227371043
-20.167325395201203
5.333257415807623
12.205060616848229
-67.16234907916157
-8.206885083534889
149.20902523758244
-24.98124673917812
33.8267536945428
-49.0621544870508
-460.12539225171497
7.501558726661826
17.00734435550346
-38.21124136157017
15.535380307955506
-14.490352936457413
-13.24462567837196
-12.821649272467354
-43.58326475353026
-8.702284882122216
-191.53840787916226
-5.402240297406217
-16.22733179263905
-24.458748150419126
53.999694384627816
206.02180137709453
-256.516413321252
-247.67798960599274
-12.650098859636842
-8.227824735095297
-21.949121650069944
237.1018894812978
-28.0739524428607
199.44346586821106
275.1719393585934
58.92652231419905
-45.65547944108978
-324.5889269312731
-61.760058595128974
-36.60548754020074
-59.67281427091706
-20.35578636131424
8.429931509955477
-50.90266663629579
-18.386216658029596
210.79095535402683
-27.98868721202993
-8.40908308672962
-14.305196634497253
198.62628378212372
-318.6869502425287
-36.68004371908514
-130.01389808177782
23.018903169750217
-261.0189747685142
-18.321029022186952
-229.6678665374158
34.74367049707817
11.749408495770622
167.75715991193175
-212.8680393698799
-297.3619364167282
17.093532959597823
-275.5150154799013
177.27001050665106
-24.62002773992102
-226.85102129459054
-4.555756814999626
-358.55724260503615
24.14736363742425
-41.69688635901991
-44.67024780152923
-13.381302071373902
-20.525561788265694
-55.04466889495391
-355.38448563068005
-55.19710616717015
25.911317469807592
-43.978275521782535
203.39825926867758
-265.17514510187596
-16.217905864258725
-34.05374400762696
10.798687164287518
199.94165952448628
204.2390507865353
-15.12799872111479
-2.6954177916746147
-18.71955559376175
-6.715741850027749
-13.932309216398068
231.51491329006262
-17.65649415843149
164.78384943521183
-225.4938865362008
-21.26650149171788
-34.06292631177486
-376.1385710710532
-295.61917977547716
-27.763420136031243
-34.84638517065536
136.63241511991157
-21.8560387541529
-31.538150225197242
3.893624805871511
-35.94173060339753
-217.61879489329164
-1.0107653360439648
233.90192784241867
252.48091621279093
272.89445960574244
248.8704649440297
205.19605108461428
23.221053056799228
25.11473638268489
143.9768658374672
-26.5683358308015
-38.42750825312642
-443.9726249271345
39.94777074826712
18.782367875527598
-50.899810905805616
-2.320003714234778
52.70496119066809
264.57071169044525
3.253952105517996
9.829371171328772
-21.225259049266057
-38.413703057041346
3.431047896162738
-19.21573838315858
260.9850638406065
157.54599273459752
-306.25521889076015
118.4138207649623
-9.336705857652845
-403.21379403047786
5.270258106930681
-286.98070239481933
245.6701843406647
153.72240834360215
181.34900355881348
-11.24132755267485
-30.893755369086286
2.3778329474773123
-15.787793213438263
109.83099749857716
23.1055248450138
239.96768668615496
24.670704750942384
-8.499192125297839
77.16693596123434
-61.03242924713873
6.671684076791649
-374.11783727301446
254.30157627456572
-12.882917628518772
108.27814691620017
-22.9016520085513
-50.6133050178405
154.3538617490027
-9.642836363128655
-363.4252195624323
-30.970667483590823
-8.187056567376173
181.13075167509592
153.63121285496217
213.90219687077172
191.2309864208416
-45.063408981314986
-94.34315544016958
-25.534913697347847
-16.454650234173442
107.89845195853984
42.58495734063229
-39.92088853230172
22.776024919366094
225.2180908111506
-239.0275001908924
-21.873330633107997
-53.249138149641475
38.4005518904583
-35.3765370196908
-58.37722498691363
-20.83357962749642
8.253408965633653
217.11532268296727
159.18236185360055
260.33181218113486
125.85556560680153
18.890281336107506
-357.06321893906284
-246.17223029309005
134.2048902138853
183.22855448420958
55.67246642194626
-26.798742774126353
31.675550549166832
-217.18824555920688
-17.565160632316072
235.08638578197954
0.14383415221753992
21.648761924278894
-19.188685425884643
-23.6461420563676
-12.811026171802641
-121.24034708058095
214.08942461445122
-72.66172448751767
-20.73610618976184
-70.69137017328684
-19.484652617480766
-41.80318503052831
-23.243680077858883
-98.97361162648757
144.32354182671122
-8.00596631747365
-28.27193172826135
-371.2522974020315
-376.83635349324794
244.8767340875568
33.976204798416376
-268.35768703164365
192.11156695881988
-35.81136687440259
-226.85622537521465
185.35847593102739
-46.01026495537921
-48.57749950460977
-11.048026390282729
264.342917194621
114.84750093172269
-21.032001918855993
262.824874277675
-309.23107188463007
-6.963022382256621
143.258641405518
37.60910014936857
157.02253819738593
-32.60787805319801
149.00273088860345
-18.4769100341163
-61.80516965627178
26.68850915410762
-45.403602906038316
251.65256092682324
-21.83984557687948
147.6432510219811
-10.683308775433133
-536.8806881205601
-83.99752693912109
-19.00175482768412
23.62816604898974
40.42434870175063
3.209749546783639
206.1341818647258
63.01547009937204
-2.558602060942576
184.66992259546905
-12.972591943202218
15.778793694392162
-218.38681717653841
-6.746843986181549
227.2897368569401
-45.477560032659625
-27.429778120776557
-22.54807687876438
-43.99620797661174
72.75542825211215
251.96711896458808
11.947224634606176
-101.01800834234781
228.68712268781292
-21.095640543009097
-20.68046164513109
23.595526155450063
214.51304518882426
-141.57234969463713
219.6919571858867
-1.7929996960496197
-209.81675091835592
-224.02893802211122
-78.54786491734846
149.05069739160157
7.255559751577421
-40.80574234069426
-173.77499717806734
-20.660251720202265
20.59629273366606
-55.92721876701244
-29.794381771825634
-18.39374916673279
-82.6415281795763
-44.69595778445727
-54.66180316649285
-133.0725178417503
-6.722924182487759
-30.005707974866233
-24.788690185381842
-48.15900897747866
27.29074984473055
