-246.5711101176721
-202.64400762272032
-178.01722817310844
-153.49207061491407
-165.06802367427935
-160.22315832323525
-152.76230878516773
-156.46527099274982
-149.8060604104632
-150.67127253695654
-140.58107474835836
-136.6228721766035
-137.395556685896
-141.51659802807225
-126.28447051051326
-118.11134547752675
-112.2188572172974
-101.58003845742115
-94.94039500443024
-80.31487840263654
-73.75131538672441
-64.92023529187479
-50.25523167714569
-38.83023381934927
-30.23170546071325
-24.919125005584945
-18.17449412430839
-11.942505143839183
-6.665399188742157
-3.673650909978312
5.378763151355307
10.311471152172151
10.963482604552077
12.058344601127683
12.620895535857574
19.285323568640322
23.914087766729086
29.33743694092861
32.837342501234474
36.77442889775155
41.30197680626648
45.50067600557385
49.4977103197195
54.00611305995728
54.07097625205874
51.183573757012965
49.814725258444334
51.1853429822655
48.61616616796609
47.77477883196853
45.6537525848958
46.397454796733875
43.87550221074506
43.19222505087312
43.71826090092204
43.644836615815784
44.60996523443523
42.47670005818838
45.16242811514063
46.973007994459365
47.35949713063637
43.08272491721693
44.84148844021096
45.05212273038968
40.040333401774255
38.59725338170416
36.786271239519166
35.74266602509175
33.38478009660113
31.940368487482697
30.99122409506734
34.64837461134117
35.41783068421659
35.198658153468664
43.29153284339801
47.14554772653261
50.17514579926731
55.069797664111746
57.365888540606356
59.78179651479147
64.1176704681984
65.74652182390008
66.8137123078489
70.5209212305404
70.7913426243985
71.89714255810705
70.84792476438732
68.40410671100996
68.37477488973117
67.09899339540583
63.444637883043534
63.06444312538061
59.810674508936245
56.03914677044032
55.83694969056116
53.903691621557655
53.8867025673175
54.50400963018945
49.23088298353554
41.381584924348296
44.03365111817689
41.504475788190646
46.84357076363924
52.37843336368037
50.64526852373598
51.463813423912505
51.693555694964886
47.0205638198987
55.72481703926651
65.07995380600565
65.69555639173491
68.13082979035313
65.90053956264106
63.94437223347686
68.38462238065162
68.6974975759224
70.6341691567501
78.83297469963172
76.18207052214238
76.74274382199388
77.81022301370187
78.4612405716117
76.64035426970423
78.50901477314956
75.82184447096259
77.17189046623301
75.21816133852698
73.28192146427145
71.93324649153823
69.81897164184863
66.9308618699181
66.95180386477884
67.83797003611966
59.2853390196546
46.879246486088086
40.044857161255656
28.309987446978653
1.592014834668787
-9.655992597285065
-24.213907048858438
-29.555591010746603
-43.327110002833805
-56.390489037953245
-60.335686639706175
-52.17023947276899
-53.70552350776094
-48.16649483986826
-26.805074891195286
-16.937070732060757
-10.694236692154165
-16.19408068128455
-5.466205971708103
5.775230691947192
11.286896554292328
12.155393122829432
15.620687793493346
20.43609931263787
20.231379353330013
19.227727294364186
30.80312775568346
44.85565894767733
47.3782890819561
52.541097496482436
58.95222547430965
64.19035645540379
70.89823258919606
68.92601238750497
75.43739582220006
77.3572997435674
75.66532373675157
75.27153517971962
73.41560272616505
68.8939184783049
65.29713875825972
63.04949381567828
60.56400853513419
68.73526453767053
62.67739239061926
54.13929804401542
43.40611823799779
36.62092125626929
32.77043372167122
36.79830011004287
33.32739589863428
28.058503253163735
27.04527456556761
18.350455138170556
15.630903257928548
25.166280022858977
36.20472783947482
40.92843151542108
43.731722113129806
41.35073656525347
46.38137489236703
48.93313857037734
47.41399128547355
50.821350682066935
57.563590671269615
57.653156818571354
53.38146504454142
